#pragma once
#include <cstdarg>
namespace Eloquent {
    namespace ML {
        namespace Port {
            class RandomForest {
                public:
                    /**
                    * Predict class for features vector
                    */
                    int predict(float *x) {
                        uint8_t votes[4] = { 0 };
                        // tree #1
                        if (x[17] <= 1.0653177797794342) {
                            if (x[38] <= -0.7379619777202606) {
                                if (x[26] <= -0.32809338718652725) {
                                    if (x[3] <= -0.08327607810497284) {
                                        votes[0] += 1;
                                    }

                                    else {
                                        if (x[27] <= 0.4210367500782013) {
                                            votes[1] += 1;
                                        }

                                        else {
                                            if (x[34] <= -0.2504437181632966) {
                                                votes[3] += 1;
                                            }

                                            else {
                                                votes[2] += 1;
                                            }
                                        }
                                    }
                                }

                                else {
                                    if (x[4] <= 1.5910082459449768) {
                                        if (x[16] <= 0.33380113542079926) {
                                            votes[2] += 1;
                                        }

                                        else {
                                            if (x[5] <= 0.24822494387626648) {
                                                votes[3] += 1;
                                            }

                                            else {
                                                votes[2] += 1;
                                            }
                                        }
                                    }

                                    else {
                                        votes[0] += 1;
                                    }
                                }
                            }

                            else {
                                if (x[5] <= -0.8329835534095764) {
                                    votes[2] += 1;
                                }

                                else {
                                    if (x[35] <= -0.6847941875457764) {
                                        if (x[20] <= -0.6543269753456116) {
                                            votes[0] += 1;
                                        }

                                        else {
                                            if (x[39] <= -0.24084007740020752) {
                                                votes[3] += 1;
                                            }

                                            else {
                                                if (x[12] <= -0.1552912164479494) {
                                                    votes[3] += 1;
                                                }

                                                else {
                                                    votes[2] += 1;
                                                }
                                            }
                                        }
                                    }

                                    else {
                                        if (x[18] <= -0.7413630187511444) {
                                            if (x[23] <= 0.4476671665906906) {
                                                votes[3] += 1;
                                            }

                                            else {
                                                votes[2] += 1;
                                            }
                                        }

                                        else {
                                            if (x[41] <= -0.6219486892223358) {
                                                votes[3] += 1;
                                            }

                                            else {
                                                if (x[3] <= 0.9569691121578217) {
                                                    if (x[25] <= 0.007316929288208485) {
                                                        votes[1] += 1;
                                                    }

                                                    else {
                                                        if (x[22] <= 0.259372353553772) {
                                                            votes[1] += 1;
                                                        }

                                                        else {
                                                            votes[3] += 1;
                                                        }
                                                    }
                                                }

                                                else {
                                                    if (x[9] <= -0.9480595290660858) {
                                                        votes[3] += 1;
                                                    }

                                                    else {
                                                        votes[2] += 1;
                                                    }
                                                }
                                            }
                                        }
                                    }
                                }
                            }
                        }

                        else {
                            if (x[20] <= 1.0262806117534637) {
                                if (x[16] <= -0.5338569432497025) {
                                    votes[3] += 1;
                                }

                                else {
                                    if (x[38] <= -0.35823434591293335) {
                                        votes[2] += 1;
                                    }

                                    else {
                                        votes[0] += 1;
                                    }
                                }
                            }

                            else {
                                votes[2] += 1;
                            }
                        }

                        // tree #2
                        if (x[42] <= -0.532311424612999) {
                            if (x[29] <= -0.19008208811283112) {
                                if (x[7] <= 0.5512948483228683) {
                                    votes[2] += 1;
                                }

                                else {
                                    votes[1] += 1;
                                }
                            }

                            else {
                                if (x[18] <= -0.6838352382183075) {
                                    votes[2] += 1;
                                }

                                else {
                                    votes[1] += 1;
                                }
                            }
                        }

                        else {
                            if (x[18] <= 0.43006348609924316) {
                                if (x[42] <= -0.17111443728208542) {
                                    if (x[17] <= 2.7227567434310913) {
                                        votes[3] += 1;
                                    }

                                    else {
                                        votes[2] += 1;
                                    }
                                }

                                else {
                                    if (x[34] <= -0.4649035930633545) {
                                        if (x[29] <= -0.5648652762174606) {
                                            votes[0] += 1;
                                        }

                                        else {
                                            if (x[42] <= 0.7390456199645996) {
                                                if (x[32] <= -0.7044272720813751) {
                                                    votes[2] += 1;
                                                }

                                                else {
                                                    votes[3] += 1;
                                                }
                                            }

                                            else {
                                                votes[2] += 1;
                                            }
                                        }
                                    }

                                    else {
                                        if (x[18] <= -0.7778588235378265) {
                                            if (x[6] <= -0.9416225552558899) {
                                                votes[0] += 1;
                                            }

                                            else {
                                                if (x[26] <= 1.7909588813781738) {
                                                    votes[2] += 1;
                                                }

                                                else {
                                                    votes[3] += 1;
                                                }
                                            }
                                        }

                                        else {
                                            if (x[14] <= -0.28261762857437134) {
                                                votes[2] += 1;
                                            }

                                            else {
                                                votes[1] += 1;
                                            }
                                        }
                                    }
                                }
                            }

                            else {
                                if (x[5] <= 0.7711673378944397) {
                                    if (x[23] <= -0.22403425723314285) {
                                        if (x[7] <= -0.549783855676651) {
                                            votes[2] += 1;
                                        }

                                        else {
                                            votes[0] += 1;
                                        }
                                    }

                                    else {
                                        votes[0] += 1;
                                    }
                                }

                                else {
                                    votes[3] += 1;
                                }
                            }
                        }

                        // tree #3
                        if (x[18] <= 1.6081970930099487) {
                            if (x[4] <= -1.2540407180786133) {
                                votes[3] += 1;
                            }

                            else {
                                if (x[22] <= 0.17525235563516617) {
                                    if (x[0] <= 1.4712957739830017) {
                                        if (x[17] <= -0.667379766702652) {
                                            if (x[0] <= -0.45162734761834145) {
                                                if (x[3] <= 0.9002284705638885) {
                                                    votes[2] += 1;
                                                }

                                                else {
                                                    votes[3] += 1;
                                                }
                                            }

                                            else {
                                                if (x[19] <= -0.6955797374248505) {
                                                    votes[2] += 1;
                                                }

                                                else {
                                                    votes[0] += 1;
                                                }
                                            }
                                        }

                                        else {
                                            if (x[29] <= -0.08814432099461555) {
                                                if (x[1] <= 1.6866488456726074) {
                                                    if (x[30] <= -0.6113001108169556) {
                                                        votes[0] += 1;
                                                    }

                                                    else {
                                                        if (x[36] <= -0.05793691426515579) {
                                                            votes[2] += 1;
                                                        }

                                                        else {
                                                            if (x[16] <= 0.31792399287223816) {
                                                                votes[2] += 1;
                                                            }

                                                            else {
                                                                votes[3] += 1;
                                                            }
                                                        }
                                                    }
                                                }

                                                else {
                                                    votes[1] += 1;
                                                }
                                            }

                                            else {
                                                if (x[7] <= -0.363738514482975) {
                                                    if (x[18] <= -0.7873391211032867) {
                                                        votes[3] += 1;
                                                    }

                                                    else {
                                                        votes[2] += 1;
                                                    }
                                                }

                                                else {
                                                    votes[3] += 1;
                                                }
                                            }
                                        }
                                    }

                                    else {
                                        if (x[13] <= 0.7518095783889294) {
                                            votes[1] += 1;
                                        }

                                        else {
                                            votes[2] += 1;
                                        }
                                    }
                                }

                                else {
                                    if (x[32] <= -0.38957105576992035) {
                                        votes[2] += 1;
                                    }

                                    else {
                                        if (x[25] <= 0.007316929288208485) {
                                            if (x[24] <= -0.6586101353168488) {
                                                votes[2] += 1;
                                            }

                                            else {
                                                votes[1] += 1;
                                            }
                                        }

                                        else {
                                            if (x[12] <= -0.6366772949695587) {
                                                votes[1] += 1;
                                            }

                                            else {
                                                if (x[7] <= -0.6830203235149384) {
                                                    votes[2] += 1;
                                                }

                                                else {
                                                    votes[3] += 1;
                                                }
                                            }
                                        }
                                    }
                                }
                            }
                        }

                        else {
                            if (x[26] <= -0.1404513781890273) {
                                votes[0] += 1;
                            }

                            else {
                                votes[2] += 1;
                            }
                        }

                        // tree #4
                        if (x[35] <= 0.07735979184508324) {
                            if (x[42] <= -0.03351263329386711) {
                                if (x[42] <= -0.532311424612999) {
                                    if (x[13] <= -0.8250824511051178) {
                                        votes[1] += 1;
                                    }

                                    else {
                                        if (x[18] <= 0.7896896004676819) {
                                            votes[2] += 1;
                                        }

                                        else {
                                            votes[1] += 1;
                                        }
                                    }
                                }

                                else {
                                    if (x[9] <= -0.7723632752895355) {
                                        if (x[19] <= 0.43235349655151367) {
                                            votes[2] += 1;
                                        }

                                        else {
                                            votes[3] += 1;
                                        }
                                    }

                                    else {
                                        votes[3] += 1;
                                    }
                                }
                            }

                            else {
                                if (x[41] <= -0.0325489342212677) {
                                    if (x[23] <= -0.22251713275909424) {
                                        if (x[9] <= -0.6808581650257111) {
                                            votes[3] += 1;
                                        }

                                        else {
                                            if (x[28] <= -0.32076501846313477) {
                                                votes[3] += 1;
                                            }

                                            else {
                                                votes[0] += 1;
                                            }
                                        }
                                    }

                                    else {
                                        votes[0] += 1;
                                    }
                                }

                                else {
                                    if (x[29] <= -0.36268578469753265) {
                                        votes[3] += 1;
                                    }

                                    else {
                                        votes[2] += 1;
                                    }
                                }
                            }
                        }

                        else {
                            if (x[11] <= -0.06960838846862316) {
                                if (x[12] <= -0.7074695527553558) {
                                    if (x[22] <= 1.157044529914856) {
                                        if (x[3] <= 0.6165252029895782) {
                                            votes[3] += 1;
                                        }

                                        else {
                                            votes[2] += 1;
                                        }
                                    }

                                    else {
                                        if (x[24] <= -0.5509135574102402) {
                                            votes[2] += 1;
                                        }

                                        else {
                                            votes[1] += 1;
                                        }
                                    }
                                }

                                else {
                                    if (x[4] <= -0.2645026845857501) {
                                        if (x[17] <= 0.09423670172691345) {
                                            votes[3] += 1;
                                        }

                                        else {
                                            if (x[42] <= 0.4018222764134407) {
                                                votes[2] += 1;
                                            }

                                            else {
                                                votes[0] += 1;
                                            }
                                        }
                                    }

                                    else {
                                        votes[2] += 1;
                                    }
                                }
                            }

                            else {
                                if (x[19] <= 0.7662485390901566) {
                                    if (x[26] <= 0.3275385871529579) {
                                        votes[1] += 1;
                                    }

                                    else {
                                        votes[2] += 1;
                                    }
                                }

                                else {
                                    votes[2] += 1;
                                }
                            }
                        }

                        // tree #5
                        if (x[9] <= 0.865672767162323) {
                            if (x[16] <= 0.02773713693022728) {
                                if (x[16] <= -0.23555678129196167) {
                                    if (x[2] <= 1.0482858717441559) {
                                        if (x[13] <= -0.7644907534122467) {
                                            if (x[15] <= -0.10078519198577851) {
                                                if (x[4] <= -1.5255789160728455) {
                                                    votes[3] += 1;
                                                }

                                                else {
                                                    votes[2] += 1;
                                                }
                                            }

                                            else {
                                                if (x[14] <= 0.06884448230266571) {
                                                    if (x[14] <= -0.02744307741522789) {
                                                        votes[0] += 1;
                                                    }

                                                    else {
                                                        votes[3] += 1;
                                                    }
                                                }

                                                else {
                                                    votes[1] += 1;
                                                }
                                            }
                                        }

                                        else {
                                            if (x[34] <= -0.5224949717521667) {
                                                if (x[23] <= -0.2343931421637535) {
                                                    votes[3] += 1;
                                                }

                                                else {
                                                    votes[2] += 1;
                                                }
                                            }

                                            else {
                                                if (x[35] <= -0.06999177113175392) {
                                                    if (x[17] <= -0.6836605370044708) {
                                                        votes[0] += 1;
                                                    }

                                                    else {
                                                        if (x[2] <= -0.5905906856060028) {
                                                            votes[3] += 1;
                                                        }

                                                        else {
                                                            if (x[13] <= -0.5922942012548447) {
                                                                votes[3] += 1;
                                                            }

                                                            else {
                                                                votes[0] += 1;
                                                            }
                                                        }
                                                    }
                                                }

                                                else {
                                                    votes[2] += 1;
                                                }
                                            }
                                        }
                                    }

                                    else {
                                        if (x[20] <= -0.6962932050228119) {
                                            votes[3] += 1;
                                        }

                                        else {
                                            votes[1] += 1;
                                        }
                                    }
                                }

                                else {
                                    votes[0] += 1;
                                }
                            }

                            else {
                                if (x[26] <= 0.1462913304567337) {
                                    if (x[21] <= -0.39962005615234375) {
                                        if (x[21] <= -0.43440867960453033) {
                                            if (x[21] <= -0.5077575743198395) {
                                                votes[3] += 1;
                                            }

                                            else {
                                                votes[2] += 1;
                                            }
                                        }

                                        else {
                                            votes[3] += 1;
                                        }
                                    }

                                    else {
                                        if (x[10] <= 1.0292740166187286) {
                                            votes[1] += 1;
                                        }

                                        else {
                                            votes[2] += 1;
                                        }
                                    }
                                }

                                else {
                                    votes[3] += 1;
                                }
                            }
                        }

                        else {
                            if (x[5] <= 0.5576041787862778) {
                                votes[2] += 1;
                            }

                            else {
                                if (x[40] <= 0.6126225292682648) {
                                    votes[3] += 1;
                                }

                                else {
                                    votes[2] += 1;
                                }
                            }
                        }

                        // tree #6
                        if (x[34] <= 0.18649238348007202) {
                            if (x[42] <= -0.6888657510280609) {
                                if (x[13] <= 1.061383455991745) {
                                    if (x[41] <= 0.4389708489179611) {
                                        if (x[10] <= 0.9408199340105057) {
                                            votes[1] += 1;
                                        }

                                        else {
                                            votes[2] += 1;
                                        }
                                    }

                                    else {
                                        votes[2] += 1;
                                    }
                                }

                                else {
                                    votes[2] += 1;
                                }
                            }

                            else {
                                if (x[41] <= -0.8577085733413696) {
                                    if (x[41] <= -0.9755885303020477) {
                                        votes[2] += 1;
                                    }

                                    else {
                                        if (x[16] <= -0.6942879557609558) {
                                            if (x[35] <= -0.7681867182254791) {
                                                votes[0] += 1;
                                            }

                                            else {
                                                votes[3] += 1;
                                            }
                                        }

                                        else {
                                            votes[0] += 1;
                                        }
                                    }
                                }

                                else {
                                    if (x[4] <= -1.2540407180786133) {
                                        votes[3] += 1;
                                    }

                                    else {
                                        if (x[36] <= -0.6540882885456085) {
                                            if (x[22] <= 0.17267746338620782) {
                                                if (x[34] <= -0.3821003884077072) {
                                                    votes[3] += 1;
                                                }

                                                else {
                                                    votes[2] += 1;
                                                }
                                            }

                                            else {
                                                if (x[25] <= -0.5648503005504608) {
                                                    votes[2] += 1;
                                                }

                                                else {
                                                    votes[1] += 1;
                                                }
                                            }
                                        }

                                        else {
                                            if (x[17] <= -0.7941991090774536) {
                                                votes[1] += 1;
                                            }

                                            else {
                                                if (x[15] <= -0.046093398705124855) {
                                                    if (x[38] <= 0.41632717847824097) {
                                                        if (x[21] <= -0.49055588245391846) {
                                                            votes[2] += 1;
                                                        }

                                                        else {
                                                            votes[3] += 1;
                                                        }
                                                    }

                                                    else {
                                                        votes[2] += 1;
                                                    }
                                                }

                                                else {
                                                    if (x[3] <= -0.593941867351532) {
                                                        votes[0] += 1;
                                                    }

                                                    else {
                                                        votes[2] += 1;
                                                    }
                                                }
                                            }
                                        }
                                    }
                                }
                            }
                        }

                        else {
                            if (x[26] <= -0.2779846787452698) {
                                if (x[0] <= 1.2768429219722748) {
                                    if (x[14] <= -0.5135732591152191) {
                                        votes[2] += 1;
                                    }

                                    else {
                                        votes[0] += 1;
                                    }
                                }

                                else {
                                    votes[3] += 1;
                                }
                            }

                            else {
                                if (x[6] <= 0.24667813628911972) {
                                    votes[2] += 1;
                                }

                                else {
                                    votes[3] += 1;
                                }
                            }
                        }

                        // tree #7
                        if (x[32] <= 1.2810710668563843) {
                            if (x[41] <= -0.8577085733413696) {
                                if (x[19] <= -0.3348260968923569) {
                                    if (x[42] <= -0.28318386152386665) {
                                        votes[2] += 1;
                                    }

                                    else {
                                        votes[0] += 1;
                                    }
                                }

                                else {
                                    if (x[20] <= -0.7131673693656921) {
                                        votes[0] += 1;
                                    }

                                    else {
                                        votes[3] += 1;
                                    }
                                }
                            }

                            else {
                                if (x[41] <= 0.49791082739830017) {
                                    if (x[42] <= -0.6888657510280609) {
                                        if (x[7] <= -0.4562021493911743) {
                                            votes[2] += 1;
                                        }

                                        else {
                                            if (x[41] <= -0.6808886528015137) {
                                                votes[2] += 1;
                                            }

                                            else {
                                                votes[1] += 1;
                                            }
                                        }
                                    }

                                    else {
                                        if (x[5] <= -0.17124414071440697) {
                                            if (x[3] <= -0.499374121427536) {
                                                votes[0] += 1;
                                            }

                                            else {
                                                if (x[5] <= -0.37712016701698303) {
                                                    votes[2] += 1;
                                                }

                                                else {
                                                    if (x[33] <= -0.48453330993652344) {
                                                        votes[3] += 1;
                                                    }

                                                    else {
                                                        votes[2] += 1;
                                                    }
                                                }
                                            }
                                        }

                                        else {
                                            if (x[42] <= 0.6773643791675568) {
                                                votes[3] += 1;
                                            }

                                            else {
                                                votes[2] += 1;
                                            }
                                        }
                                    }
                                }

                                else {
                                    if (x[28] <= 1.9344041347503662) {
                                        if (x[11] <= -0.9683758616447449) {
                                            votes[2] += 1;
                                        }

                                        else {
                                            if (x[4] <= 0.19060344994068146) {
                                                votes[3] += 1;
                                            }

                                            else {
                                                votes[2] += 1;
                                            }
                                        }
                                    }

                                    else {
                                        votes[2] += 1;
                                    }
                                }
                            }
                        }

                        else {
                            votes[1] += 1;
                        }

                        // tree #8
                        if (x[28] <= -0.5893469750881195) {
                            if (x[33] <= -0.060204923152923584) {
                                if (x[3] <= 0.7867471575737) {
                                    if (x[5] <= -0.8024921715259552) {
                                        votes[2] += 1;
                                    }

                                    else {
                                        votes[1] += 1;
                                    }
                                }

                                else {
                                    votes[2] += 1;
                                }
                            }

                            else {
                                if (x[26] <= -1.2067019939422607) {
                                    votes[3] += 1;
                                }

                                else {
                                    votes[2] += 1;
                                }
                            }
                        }

                        else {
                            if (x[33] <= -0.4725794047117233) {
                                if (x[22] <= -0.6158836483955383) {
                                    if (x[7] <= 0.2078545754775405) {
                                        votes[0] += 1;
                                    }

                                    else {
                                        if (x[25] <= -0.038486331701278687) {
                                            if (x[21] <= -0.25328460335731506) {
                                                votes[1] += 1;
                                            }

                                            else {
                                                votes[2] += 1;
                                            }
                                        }

                                        else {
                                            votes[3] += 1;
                                        }
                                    }
                                }

                                else {
                                    if (x[6] <= -0.25700773298740387) {
                                        if (x[12] <= -0.42550934851169586) {
                                            votes[2] += 1;
                                        }

                                        else {
                                            votes[3] += 1;
                                        }
                                    }

                                    else {
                                        votes[3] += 1;
                                    }
                                }
                            }

                            else {
                                if (x[0] <= 0.8447253406047821) {
                                    if (x[26] <= -0.27324414253234863) {
                                        if (x[18] <= 0.43006348609924316) {
                                            if (x[32] <= -0.2668043524026871) {
                                                votes[2] += 1;
                                            }

                                            else {
                                                votes[3] += 1;
                                            }
                                        }

                                        else {
                                            if (x[9] <= 1.5474285185337067) {
                                                votes[0] += 1;
                                            }

                                            else {
                                                votes[2] += 1;
                                            }
                                        }
                                    }

                                    else {
                                        if (x[32] <= -0.20634141564369202) {
                                            votes[2] += 1;
                                        }

                                        else {
                                            if (x[22] <= -0.8296373784542084) {
                                                if (x[31] <= -0.6003627181053162) {
                                                    votes[2] += 1;
                                                }

                                                else {
                                                    votes[0] += 1;
                                                }
                                            }

                                            else {
                                                if (x[10] <= -0.01912045106291771) {
                                                    if (x[27] <= 0.772127091884613) {
                                                        votes[2] += 1;
                                                    }

                                                    else {
                                                        votes[1] += 1;
                                                    }
                                                }

                                                else {
                                                    if (x[0] <= -0.5272479355335236) {
                                                        votes[2] += 1;
                                                    }

                                                    else {
                                                        votes[3] += 1;
                                                    }
                                                }
                                            }
                                        }
                                    }
                                }

                                else {
                                    votes[1] += 1;
                                }
                            }
                        }

                        // tree #9
                        if (x[18] <= 0.4462950825691223) {
                            if (x[32] <= 1.2810710668563843) {
                                if (x[22] <= -0.7836569547653198) {
                                    if (x[10] <= 0.966598242521286) {
                                        if (x[12] <= -0.01682819053530693) {
                                            if (x[22] <= -1.470700979232788) {
                                                votes[2] += 1;
                                            }

                                            else {
                                                if (x[8] <= 1.0591927468776703) {
                                                    votes[3] += 1;
                                                }

                                                else {
                                                    votes[1] += 1;
                                                }
                                            }
                                        }

                                        else {
                                            votes[0] += 1;
                                        }
                                    }

                                    else {
                                        votes[2] += 1;
                                    }
                                }

                                else {
                                    if (x[42] <= -0.5406782180070877) {
                                        if (x[4] <= 0.330949030816555) {
                                            if (x[9] <= 0.4841221123933792) {
                                                votes[1] += 1;
                                            }

                                            else {
                                                votes[2] += 1;
                                            }
                                        }

                                        else {
                                            votes[2] += 1;
                                        }
                                    }

                                    else {
                                        if (x[7] <= -0.21617233008146286) {
                                            if (x[15] <= -0.307186022400856) {
                                                if (x[7] <= -0.6174653172492981) {
                                                    votes[3] += 1;
                                                }

                                                else {
                                                    if (x[3] <= 0.21934070251882076) {
                                                        votes[2] += 1;
                                                    }

                                                    else {
                                                        votes[3] += 1;
                                                    }
                                                }
                                            }

                                            else {
                                                if (x[8] <= -0.728259950876236) {
                                                    if (x[17] <= 2.7227567434310913) {
                                                        votes[3] += 1;
                                                    }

                                                    else {
                                                        votes[2] += 1;
                                                    }
                                                }

                                                else {
                                                    votes[2] += 1;
                                                }
                                            }
                                        }

                                        else {
                                            votes[3] += 1;
                                        }
                                    }
                                }
                            }

                            else {
                                votes[1] += 1;
                            }
                        }

                        else {
                            if (x[23] <= -0.2185843586921692) {
                                if (x[8] <= -0.2724833972752094) {
                                    votes[2] += 1;
                                }

                                else {
                                    if (x[41] <= -0.44512875378131866) {
                                        if (x[25] <= -0.5543700754642487) {
                                            votes[3] += 1;
                                        }

                                        else {
                                            votes[2] += 1;
                                        }
                                    }

                                    else {
                                        votes[0] += 1;
                                    }
                                }
                            }

                            else {
                                if (x[30] <= 0.003690958023071289) {
                                    if (x[6] <= 0.5005168318748474) {
                                        votes[0] += 1;
                                    }

                                    else {
                                        votes[3] += 1;
                                    }
                                }

                                else {
                                    votes[1] += 1;
                                }
                            }
                        }

                        // tree #10
                        if (x[32] <= 1.2810710668563843) {
                            if (x[3] <= -0.31023864448070526) {
                                if (x[27] <= 1.2881389260292053) {
                                    if (x[0] <= -0.39761266112327576) {
                                        if (x[18] <= 0.5792812407016754) {
                                            votes[2] += 1;
                                        }

                                        else {
                                            if (x[21] <= -0.351463183760643) {
                                                votes[0] += 1;
                                            }

                                            else {
                                                votes[3] += 1;
                                            }
                                        }
                                    }

                                    else {
                                        if (x[40] <= 0.6126225292682648) {
                                            if (x[42] <= -0.6603386104106903) {
                                                votes[2] += 1;
                                            }

                                            else {
                                                votes[0] += 1;
                                            }
                                        }

                                        else {
                                            votes[3] += 1;
                                        }
                                    }
                                }

                                else {
                                    if (x[22] <= -0.3546641319990158) {
                                        votes[1] += 1;
                                    }

                                    else {
                                        votes[3] += 1;
                                    }
                                }
                            }

                            else {
                                if (x[42] <= -0.6888657510280609) {
                                    if (x[25] <= -0.43502025306224823) {
                                        if (x[27] <= -0.36797116696834564) {
                                            votes[1] += 1;
                                        }

                                        else {
                                            votes[2] += 1;
                                        }
                                    }

                                    else {
                                        votes[2] += 1;
                                    }
                                }

                                else {
                                    if (x[17] <= 1.230052649974823) {
                                        if (x[42] <= 0.7390456199645996) {
                                            if (x[40] <= 0.6126225292682648) {
                                                votes[3] += 1;
                                            }

                                            else {
                                                if (x[6] <= -0.5305641889572144) {
                                                    votes[3] += 1;
                                                }

                                                else {
                                                    votes[2] += 1;
                                                }
                                            }
                                        }

                                        else {
                                            votes[2] += 1;
                                        }
                                    }

                                    else {
                                        if (x[32] <= -0.7056160867214203) {
                                            votes[2] += 1;
                                        }

                                        else {
                                            votes[0] += 1;
                                        }
                                    }
                                }
                            }
                        }

                        else {
                            votes[1] += 1;
                        }

                        // tree #11
                        if (x[12] <= 0.09412451460957527) {
                            if (x[5] <= -0.6424618363380432) {
                                if (x[42] <= -0.03351263329386711) {
                                    if (x[16] <= 0.6794182434678078) {
                                        votes[2] += 1;
                                    }

                                    else {
                                        votes[3] += 1;
                                    }
                                }

                                else {
                                    if (x[9] <= 1.2462832033634186) {
                                        if (x[41] <= 0.0853310078382492) {
                                            votes[0] += 1;
                                        }

                                        else {
                                            votes[2] += 1;
                                        }
                                    }

                                    else {
                                        votes[2] += 1;
                                    }
                                }
                            }

                            else {
                                if (x[11] <= 0.478114053606987) {
                                    if (x[8] <= -0.5402863472700119) {
                                        if (x[9] <= 1.0777195245027542) {
                                            votes[1] += 1;
                                        }

                                        else {
                                            votes[2] += 1;
                                        }
                                    }

                                    else {
                                        if (x[32] <= 1.2810710668563843) {
                                            if (x[39] <= -0.6559760570526123) {
                                                if (x[5] <= 0.38749048113822937) {
                                                    votes[3] += 1;
                                                }

                                                else {
                                                    votes[1] += 1;
                                                }
                                            }

                                            else {
                                                if (x[4] <= 0.35027197003364563) {
                                                    votes[3] += 1;
                                                }

                                                else {
                                                    votes[2] += 1;
                                                }
                                            }
                                        }

                                        else {
                                            votes[1] += 1;
                                        }
                                    }
                                }

                                else {
                                    if (x[14] <= 1.598041296005249) {
                                        if (x[42] <= 0.17065639048814774) {
                                            votes[2] += 1;
                                        }

                                        else {
                                            if (x[9] <= 0.42025166749954224) {
                                                votes[3] += 1;
                                            }

                                            else {
                                                votes[2] += 1;
                                            }
                                        }
                                    }

                                    else {
                                        votes[0] += 1;
                                    }
                                }
                            }
                        }

                        else {
                            if (x[24] <= 0.04699617996811867) {
                                if (x[42] <= -0.039297569543123245) {
                                    if (x[11] <= -0.9014565348625183) {
                                        votes[3] += 1;
                                    }

                                    else {
                                        if (x[24] <= -0.5887699723243713) {
                                            votes[3] += 1;
                                        }

                                        else {
                                            votes[2] += 1;
                                        }
                                    }
                                }

                                else {
                                    if (x[14] <= -0.4688875526189804) {
                                        if (x[28] <= -0.44939567148685455) {
                                            votes[2] += 1;
                                        }

                                        else {
                                            votes[3] += 1;
                                        }
                                    }

                                    else {
                                        votes[0] += 1;
                                    }
                                }
                            }

                            else {
                                if (x[38] <= 2.4029702246189117) {
                                    if (x[28] <= 1.6528776288032532) {
                                        votes[3] += 1;
                                    }

                                    else {
                                        votes[2] += 1;
                                    }
                                }

                                else {
                                    votes[2] += 1;
                                }
                            }
                        }

                        // tree #12
                        if (x[41] <= -0.8577085733413696) {
                            if (x[27] <= 1.0905378758907318) {
                                if (x[37] <= 1.4337391541339457) {
                                    if (x[16] <= -0.7811415791511536) {
                                        votes[3] += 1;
                                    }

                                    else {
                                        if (x[22] <= -1.508987843990326) {
                                            votes[2] += 1;
                                        }

                                        else {
                                            votes[0] += 1;
                                        }
                                    }
                                }

                                else {
                                    votes[2] += 1;
                                }
                            }

                            else {
                                votes[3] += 1;
                            }
                        }

                        else {
                            if (x[5] <= -0.22151950746774673) {
                                if (x[8] <= -0.10582735762000084) {
                                    if (x[29] <= -1.2748479843139648) {
                                        votes[1] += 1;
                                    }

                                    else {
                                        if (x[25] <= 3.7750457525253296) {
                                            if (x[36] <= -0.1698020901530981) {
                                                votes[2] += 1;
                                            }

                                            else {
                                                if (x[12] <= 0.7688456475734711) {
                                                    if (x[3] <= -0.4237199369817972) {
                                                        votes[3] += 1;
                                                    }

                                                    else {
                                                        votes[2] += 1;
                                                    }
                                                }

                                                else {
                                                    votes[2] += 1;
                                                }
                                            }
                                        }

                                        else {
                                            votes[0] += 1;
                                        }
                                    }
                                }

                                else {
                                    if (x[34] <= -0.2723444849252701) {
                                        if (x[22] <= -0.45184265077114105) {
                                            votes[2] += 1;
                                        }

                                        else {
                                            votes[3] += 1;
                                        }
                                    }

                                    else {
                                        votes[0] += 1;
                                    }
                                }
                            }

                            else {
                                if (x[13] <= 1.1614247262477875) {
                                    if (x[42] <= -0.5167327523231506) {
                                        if (x[17] <= 1.3461306989192963) {
                                            if (x[41] <= -0.6808886528015137) {
                                                votes[2] += 1;
                                            }

                                            else {
                                                votes[1] += 1;
                                            }
                                        }

                                        else {
                                            votes[2] += 1;
                                        }
                                    }

                                    else {
                                        if (x[10] <= 0.36171188950538635) {
                                            votes[3] += 1;
                                        }

                                        else {
                                            if (x[6] <= 0.6596651487052441) {
                                                votes[1] += 1;
                                            }

                                            else {
                                                votes[2] += 1;
                                            }
                                        }
                                    }
                                }

                                else {
                                    votes[3] += 1;
                                }
                            }
                        }

                        // tree #13
                        if (x[42] <= -0.532311424612999) {
                            if (x[29] <= -0.19008208811283112) {
                                if (x[4] <= 0.2170453709550202) {
                                    if (x[32] <= 0.9895326197147369) {
                                        votes[2] += 1;
                                    }

                                    else {
                                        votes[1] += 1;
                                    }
                                }

                                else {
                                    votes[2] += 1;
                                }
                            }

                            else {
                                if (x[7] <= -0.5496113002300262) {
                                    votes[2] += 1;
                                }

                                else {
                                    votes[1] += 1;
                                }
                            }
                        }

                        else {
                            if (x[42] <= -0.17111443728208542) {
                                if (x[12] <= 1.0587630867958069) {
                                    votes[3] += 1;
                                }

                                else {
                                    if (x[7] <= -0.3866117596626282) {
                                        votes[3] += 1;
                                    }

                                    else {
                                        votes[2] += 1;
                                    }
                                }
                            }

                            else {
                                if (x[22] <= 0.14955664426088333) {
                                    if (x[41] <= -0.0325489342212677) {
                                        if (x[18] <= -0.7121618986129761) {
                                            if (x[37] <= 0.405205637216568) {
                                                if (x[20] <= 0.1819380708038807) {
                                                    votes[2] += 1;
                                                }

                                                else {
                                                    votes[0] += 1;
                                                }
                                            }

                                            else {
                                                votes[3] += 1;
                                            }
                                        }

                                        else {
                                            if (x[42] <= -0.03351263329386711) {
                                                votes[2] += 1;
                                            }

                                            else {
                                                votes[0] += 1;
                                            }
                                        }
                                    }

                                    else {
                                        if (x[33] <= -0.5661976635456085) {
                                            votes[3] += 1;
                                        }

                                        else {
                                            votes[2] += 1;
                                        }
                                    }
                                }

                                else {
                                    if (x[23] <= -0.2337900549173355) {
                                        if (x[4] <= -1.6196511387825012) {
                                            votes[3] += 1;
                                        }

                                        else {
                                            votes[2] += 1;
                                        }
                                    }

                                    else {
                                        if (x[41] <= 0.6157907545566559) {
                                            if (x[16] <= 2.010580986738205) {
                                                votes[0] += 1;
                                            }

                                            else {
                                                votes[2] += 1;
                                            }
                                        }

                                        else {
                                            votes[1] += 1;
                                        }
                                    }
                                }
                            }
                        }

                        // tree #14
                        if (x[32] <= 1.2810710668563843) {
                            if (x[40] <= 0.6126225292682648) {
                                if (x[7] <= -0.4354086220264435) {
                                    if (x[42] <= -0.11941765621304512) {
                                        if (x[25] <= -0.6250962913036346) {
                                            votes[1] += 1;
                                        }

                                        else {
                                            if (x[39] <= 0.44311377219855785) {
                                                votes[2] += 1;
                                            }

                                            else {
                                                votes[3] += 1;
                                            }
                                        }
                                    }

                                    else {
                                        if (x[27] <= 0.028296328149735928) {
                                            if (x[11] <= -1.0452530086040497) {
                                                votes[2] += 1;
                                            }

                                            else {
                                                votes[0] += 1;
                                            }
                                        }

                                        else {
                                            votes[2] += 1;
                                        }
                                    }
                                }

                                else {
                                    if (x[22] <= -1.3931515216827393) {
                                        if (x[10] <= 0.4351387023925781) {
                                            votes[0] += 1;
                                        }

                                        else {
                                            votes[2] += 1;
                                        }
                                    }

                                    else {
                                        if (x[42] <= -0.532311424612999) {
                                            if (x[33] <= -0.32636068761348724) {
                                                votes[1] += 1;
                                            }

                                            else {
                                                votes[2] += 1;
                                            }
                                        }

                                        else {
                                            if (x[15] <= 0.18596685118973255) {
                                                votes[3] += 1;
                                            }

                                            else {
                                                if (x[24] <= 1.4407838806509972) {
                                                    votes[0] += 1;
                                                }

                                                else {
                                                    votes[3] += 1;
                                                }
                                            }
                                        }
                                    }
                                }
                            }

                            else {
                                if (x[30] <= 0.21620459109544754) {
                                    if (x[15] <= -0.21973441168665886) {
                                        votes[3] += 1;
                                    }

                                    else {
                                        votes[2] += 1;
                                    }
                                }

                                else {
                                    votes[2] += 1;
                                }
                            }
                        }

                        else {
                            votes[1] += 1;
                        }

                        // tree #15
                        if (x[32] <= 1.2810710668563843) {
                            if (x[39] <= -0.6621634364128113) {
                                if (x[20] <= 0.4397355616092682) {
                                    votes[1] += 1;
                                }

                                else {
                                    if (x[28] <= -0.0754334032535553) {
                                        votes[2] += 1;
                                    }

                                    else {
                                        votes[3] += 1;
                                    }
                                }
                            }

                            else {
                                if (x[23] <= -0.21142125129699707) {
                                    if (x[4] <= 1.6433836221694946) {
                                        if (x[42] <= -0.532311424612999) {
                                            if (x[38] <= 0.16300880908966064) {
                                                votes[2] += 1;
                                            }

                                            else {
                                                votes[1] += 1;
                                            }
                                        }

                                        else {
                                            if (x[8] <= -0.18155034631490707) {
                                                if (x[23] <= -0.23124398291110992) {
                                                    votes[2] += 1;
                                                }

                                                else {
                                                    votes[3] += 1;
                                                }
                                            }

                                            else {
                                                if (x[24] <= 1.051401138305664) {
                                                    if (x[5] <= 1.034148633480072) {
                                                        votes[3] += 1;
                                                    }

                                                    else {
                                                        if (x[8] <= 0.8179803788661957) {
                                                            votes[3] += 1;
                                                        }

                                                        else {
                                                            votes[2] += 1;
                                                        }
                                                    }
                                                }

                                                else {
                                                    votes[0] += 1;
                                                }
                                            }
                                        }
                                    }

                                    else {
                                        votes[0] += 1;
                                    }
                                }

                                else {
                                    if (x[17] <= 1.6079832911491394) {
                                        if (x[42] <= 0.11996377259492874) {
                                            if (x[42] <= -0.5009057521820068) {
                                                votes[2] += 1;
                                            }

                                            else {
                                                if (x[36] <= -0.7334918081760406) {
                                                    votes[2] += 1;
                                                }

                                                else {
                                                    votes[3] += 1;
                                                }
                                            }
                                        }

                                        else {
                                            if (x[13] <= 1.611860752105713) {
                                                votes[0] += 1;
                                            }

                                            else {
                                                if (x[4] <= -0.5294303894042969) {
                                                    votes[3] += 1;
                                                }

                                                else {
                                                    votes[2] += 1;
                                                }
                                            }
                                        }
                                    }

                                    else {
                                        votes[0] += 1;
                                    }
                                }
                            }
                        }

                        else {
                            votes[1] += 1;
                        }

                        // tree #16
                        if (x[9] <= 0.865672767162323) {
                            if (x[28] <= -0.5893469750881195) {
                                if (x[3] <= 0.7867471575737) {
                                    votes[1] += 1;
                                }

                                else {
                                    if (x[24] <= 3.103304862976074) {
                                        votes[2] += 1;
                                    }

                                    else {
                                        votes[3] += 1;
                                    }
                                }
                            }

                            else {
                                if (x[2] <= 1.141211837530136) {
                                    if (x[18] <= 0.4462950825691223) {
                                        if (x[5] <= -0.9258950054645538) {
                                            votes[2] += 1;
                                        }

                                        else {
                                            if (x[4] <= 0.5694348216056824) {
                                                if (x[15] <= -0.03410765517037362) {
                                                    votes[3] += 1;
                                                }

                                                else {
                                                    if (x[4] <= -0.698251873254776) {
                                                        if (x[38] <= -0.5401701033115387) {
                                                            votes[0] += 1;
                                                        }

                                                        else {
                                                            if (x[40] <= 0.6126225292682648) {
                                                                votes[3] += 1;
                                                            }

                                                            else {
                                                                votes[2] += 1;
                                                            }
                                                        }
                                                    }

                                                    else {
                                                        votes[1] += 1;
                                                    }
                                                }
                                            }

                                            else {
                                                if (x[4] <= 1.6433836221694946) {
                                                    if (x[21] <= -0.21649713814258575) {
                                                        if (x[18] <= -0.3009578436613083) {
                                                            if (x[18] <= -0.6531868726015091) {
                                                                votes[3] += 1;
                                                            }

                                                            else {
                                                                votes[2] += 1;
                                                            }
                                                        }

                                                        else {
                                                            votes[0] += 1;
                                                        }
                                                    }

                                                    else {
                                                        votes[2] += 1;
                                                    }
                                                }

                                                else {
                                                    votes[0] += 1;
                                                }
                                            }
                                        }
                                    }

                                    else {
                                        if (x[12] <= 0.7584580481052399) {
                                            votes[0] += 1;
                                        }

                                        else {
                                            votes[2] += 1;
                                        }
                                    }
                                }

                                else {
                                    if (x[41] <= -0.7398286461830139) {
                                        votes[3] += 1;
                                    }

                                    else {
                                        votes[1] += 1;
                                    }
                                }
                            }
                        }

                        else {
                            if (x[9] <= 1.8744810223579407) {
                                votes[2] += 1;
                            }

                            else {
                                if (x[32] <= -0.22786173969507217) {
                                    votes[2] += 1;
                                }

                                else {
                                    votes[3] += 1;
                                }
                            }
                        }

                        // tree #17
                        if (x[5] <= -0.6424618363380432) {
                            if (x[41] <= -0.1504288837313652) {
                                if (x[14] <= -0.519565224647522) {
                                    votes[2] += 1;
                                }

                                else {
                                    votes[0] += 1;
                                }
                            }

                            else {
                                if (x[6] <= -0.976526290178299) {
                                    votes[3] += 1;
                                }

                                else {
                                    votes[2] += 1;
                                }
                            }
                        }

                        else {
                            if (x[41] <= -0.6219486892223358) {
                                if (x[42] <= 0.9373820722103119) {
                                    if (x[5] <= 0.562457486987114) {
                                        if (x[42] <= 0.17065639048814774) {
                                            votes[2] += 1;
                                        }

                                        else {
                                            votes[3] += 1;
                                        }
                                    }

                                    else {
                                        votes[3] += 1;
                                    }
                                }

                                else {
                                    votes[0] += 1;
                                }
                            }

                            else {
                                if (x[4] <= -1.2306498289108276) {
                                    if (x[17] <= 1.7772564888000488) {
                                        votes[3] += 1;
                                    }

                                    else {
                                        votes[0] += 1;
                                    }
                                }

                                else {
                                    if (x[40] <= 0.6126225292682648) {
                                        if (x[17] <= -0.8436497747898102) {
                                            votes[2] += 1;
                                        }

                                        else {
                                            if (x[35] <= 1.433248907327652) {
                                                if (x[16] <= -0.7072430849075317) {
                                                    if (x[36] <= -0.66554194688797) {
                                                        votes[2] += 1;
                                                    }

                                                    else {
                                                        votes[1] += 1;
                                                    }
                                                }

                                                else {
                                                    votes[1] += 1;
                                                }
                                            }

                                            else {
                                                votes[2] += 1;
                                            }
                                        }
                                    }

                                    else {
                                        if (x[26] <= 1.2725615799427032) {
                                            if (x[24] <= -0.6634692549705505) {
                                                votes[3] += 1;
                                            }

                                            else {
                                                votes[2] += 1;
                                            }
                                        }

                                        else {
                                            votes[3] += 1;
                                        }
                                    }
                                }
                            }
                        }

                        // tree #18
                        if (x[42] <= -0.532311424612999) {
                            if (x[6] <= -0.19544630497694016) {
                                votes[2] += 1;
                            }

                            else {
                                if (x[26] <= 2.354339599609375) {
                                    if (x[9] <= 0.5777888298034668) {
                                        votes[1] += 1;
                                    }

                                    else {
                                        votes[2] += 1;
                                    }
                                }

                                else {
                                    votes[2] += 1;
                                }
                            }
                        }

                        else {
                            if (x[3] <= -0.31023864448070526) {
                                if (x[28] <= -0.5701459348201752) {
                                    votes[1] += 1;
                                }

                                else {
                                    if (x[41] <= 0.2032109647989273) {
                                        if (x[42] <= 0.08806229382753372) {
                                            votes[3] += 1;
                                        }

                                        else {
                                            if (x[29] <= 1.1837401986122131) {
                                                votes[0] += 1;
                                            }

                                            else {
                                                votes[3] += 1;
                                            }
                                        }
                                    }

                                    else {
                                        votes[3] += 1;
                                    }
                                }
                            }

                            else {
                                if (x[18] <= 1.6081970930099487) {
                                    if (x[17] <= 0.1177979102358222) {
                                        if (x[42] <= 0.7390456199645996) {
                                            if (x[28] <= 2.82610023021698) {
                                                votes[3] += 1;
                                            }

                                            else {
                                                votes[2] += 1;
                                            }
                                        }

                                        else {
                                            if (x[32] <= 1.5803613066673279) {
                                                votes[2] += 1;
                                            }

                                            else {
                                                votes[1] += 1;
                                            }
                                        }
                                    }

                                    else {
                                        votes[2] += 1;
                                    }
                                }

                                else {
                                    if (x[37] <= -0.6419509649276733) {
                                        votes[0] += 1;
                                    }

                                    else {
                                        votes[2] += 1;
                                    }
                                }
                            }
                        }

                        // tree #19
                        if (x[9] <= 0.865672767162323) {
                            if (x[32] <= 1.2810710668563843) {
                                if (x[17] <= 0.9968922734260559) {
                                    if (x[38] <= -0.4627731740474701) {
                                        if (x[42] <= -0.5009057521820068) {
                                            votes[2] += 1;
                                        }

                                        else {
                                            if (x[13] <= -0.21046020090579987) {
                                                if (x[19] <= -0.5268592238426208) {
                                                    votes[2] += 1;
                                                }

                                                else {
                                                    votes[3] += 1;
                                                }
                                            }

                                            else {
                                                if (x[29] <= 0.9889780282974243) {
                                                    votes[0] += 1;
                                                }

                                                else {
                                                    votes[3] += 1;
                                                }
                                            }
                                        }
                                    }

                                    else {
                                        if (x[22] <= 0.971623957157135) {
                                            if (x[5] <= 1.2725674510002136) {
                                                if (x[28] <= -0.3636607229709625) {
                                                    if (x[16] <= -0.7772770524024963) {
                                                        votes[3] += 1;
                                                    }

                                                    else {
                                                        votes[2] += 1;
                                                    }
                                                }

                                                else {
                                                    votes[3] += 1;
                                                }
                                            }

                                            else {
                                                if (x[5] <= 1.8355518579483032) {
                                                    votes[1] += 1;
                                                }

                                                else {
                                                    votes[3] += 1;
                                                }
                                            }
